digraph Tree {
node [shape=box, style="filled, rounded", color="black", fontname=helvetica] ;
edge [fontname=helvetica] ;
0 [label="X[0] <= 0.175\nmse = 0.097\nsamples = 200\nvalue = 0.311", fillcolor="#f9e2d2"] ;
1 [label="X[0] <= 0.045\nmse = 0.031\nsamples = 29\nvalue = 0.74", fillcolor="#eb9f69"] ;
0 -> 1 [labeldistance=2.5, labelangle=45, headlabel="True"] ;
2 [label="mse = 0.02\nsamples = 10\nvalue = 0.934", fillcolor="#e58139"] ;
1 -> 2 ;
3 [label="mse = 0.007\nsamples = 19\nvalue = 0.638", fillcolor="#efaf82"] ;
1 -> 3 ;
4 [label="X[0] <= 0.795\nmse = 0.071\nsamples = 171\nvalue = 0.238", fillcolor="#fbeee4"] ;
0 -> 4 [labeldistance=2.5, labelangle=-45, headlabel="False"] ;
5 [label="mse = 0.023\nsamples = 135\nvalue = 0.129", fillcolor="#ffffff"] ;
4 -> 5 ;
6 [label="mse = 0.038\nsamples = 36\nvalue = 0.649", fillcolor="#eeae7f"] ;
4 -> 6 ;
}